{"type":"neuralnetwork.FCFSNeuralNetwork","inputSize":5,"outputSize":14,"outputBias":[-0.43738358574191766,-0.13922776365635367,0.3773429377172556,-0.8327953425278363,0.027881062583476744,-0.7816122942780281,-0.6118796518112906,0.14263957845794056,0.2760256405102612,-0.8875526497819064,1.2896852505460883,1.3465845833696897,-0.06817676235825099,-0.8605273580945716],"hiddenBias":[[-0.921170918645194,-1.384671347944192,0.6825419594056136,-0.21553852070858834,-0.17070639780033728,0.10797124676496564,-0.5475277739452922,-0.10803571402917717,-0.16310128982367642,-0.7729416755001679]],"hiddenSize":[10],"weights":[[[-0.1702582575393922,1.4411414740129944,-0.9679433045176822,0.0728161619660369,1.490277034800697],[-0.5904742813914756,0.33284227959063256,2.190250381646252,-0.5882645346861504,-0.13118763967981253],[-1.0888695497893015,-1.2806397534676124,-0.1565577903048945,0.16044897572065359,-0.717177592526724],[-1.0052997175744551,-0.8655342825956028,-1.551015104299673,0.5684057942143516,-0.7181334489049682],[0.7451659953775335,-0.28041011214851047,-1.017707232600126,-0.41189200390054903,-0.8049656426634677],[-0.6266239976431982,1.7569096677252825,0.5862832924596516,0.1288393200843437,-0.43706077724790765],[-0.8076383137345449,0.4124595366904497,0.6445826346896045,-0.14661359252466719,-0.005324059861721757],[0.10107717409659567,0.37650457599313825,0.681165778602169,-0.19471362383414081,0.56750339958742],[-1.739014589288557,0.19255614152366426,-1.0426699128194479,-0.4774526197328271,-2.6340075649524457],[0.8142608833533518,-0.2988870544175618,-0.061056406084904924,-0.670436736074673,0.7546860475483933]],[[0.10554847740307374,-0.34891466507925983,-0.7001878294913504,-0.6028916050059159,0.14270432479679634,-0.47206750358949856,-0.7780501182040913,-0.23153562333751548,-0.9005687680068211,-0.14249144382842593],[0.06222565455440239,-0.9363159547016155,0.006617479600074305,0.6935869797824123,-1.1825118714390337,0.9928397830978273,-0.010076375903228046,-0.14833834432616236,0.8353607795974691,1.15970302428557],[0.482225557497309,0.16732640361751588,0.49183264101060564,-0.8149177757455165,-0.36315881366283903,-0.605804638483494,-1.4589039426591808,-0.5994687200945562,0.21887280808922707,0.4285241656111335],[0.001232294450921545,-0.6570258878600945,0.6293965639081087,-0.6784622967697482,-0.5581165336888291,-0.11931036528537975,-0.495387066179014,-1.0042330021772299,-0.3370828159086604,-0.7758753112073824],[-1.4630185364225208,1.396255074391107,-0.5961767438554388,0.739926556649548,0.21485715618915688,-1.6914433283520207,-1.922071098089827,-0.10726106963244357,0.6773519077281225,-0.6389313970816911],[1.2401261022301466,-0.5306559776804293,-0.5914564152504842,-0.11175788296580108,0.7021610348309959,1.4304231256378692,0.27811849869579114,-0.4156694805632012,-0.07616877844781283,-0.2828510026509179],[-0.7806079174117901,0.5548555128502615,-0.29190526404311146,-0.7176884013144474,1.485586020101119,-1.1035243984457495,-0.15038143389936504,-0.09372666742668048,-0.006025131859724336,0.07012499041613812],[1.344698567105414,1.3519876180524795,-2.3837910292786475,-0.7749845432399767,-0.942157148100576,1.6944684874620515,-1.5037956898630918,-0.20096698530739635,-0.03216485836712881,-1.6047137676663674],[-1.7505704755685365,-0.2426581424052867,-0.7689658915959193,-0.9807772866263822,1.6560120753079852,0.1425855504382354,1.4058222712130415,0.814242512490097,-0.5039082876435398,-0.35896411134709166],[0.09052222452959759,-0.16490495051403717,0.05858959572347918,-0.18450258370549635,-1.0359642077346314,-1.195361415409858,0.27730791062717053,-0.9783309617216603,-0.8197391937669001,-0.8915691421937324],[0.43045804247948627,-0.5847696536030755,1.3312933493497126,0.07227744569606827,0.5423185922362342,-0.03792854144648488,-2.47224006333847,0.625939792291435,-0.21506451055811035,0.2628383199129283],[0.013297279099095505,-0.05201633536510957,1.0990831355603552,0.08047479524858647,-0.5019896518377844,-0.30447912226205964,-0.38150220453325345,0.354009179465396,-0.632419476038994,-0.08727872620846032],[0.6744180555590717,-0.3869851909559925,-0.3964009387442482,0.24373900104612473,1.3839698291919516,0.36092109803519784,0.13016467979192914,0.06602773522553304,-0.40225268906753875,-0.8137731149190714],[-0.8622033633741307,2.4175823561530327,-0.6716110759235002,0.2704082589425064,0.07345089160493347,0.5351649777898093,-0.0013196880473453588,0.2271809557748422,0.5599993553118698,-0.16467840058192437]]]}