{"type":"neuralnetwork.FCFSNeuralNetwork","inputSize":5,"outputSize":15,"outputBias":[-0.009525712861194717,0.48217488653724966,0.6616486628068514,1.1589446636163054,2.1707197966375182,0.7366986346765596,0.2970759638437967,0.7293717495427074,0.3017826647829242,0.540665362914653,0.42822829625857906,-0.16490534029603543,-0.25732940977219226,0.23309355538197402,0.45906149989860473],"hiddenBias":[[-0.2994369366943508,-0.6777651797910446,-0.1856630105345245,0.3383435727787721,-0.5926177264598879,-0.026098708715020166,-0.39608722029031596,0.07983981533633226,-0.3927828494918698,-0.1993769920007219]],"hiddenSize":[10],"weights":[[[0.5516489834263107,-0.176993744827745,-0.559106965171116,0.05849408387185931,-0.3082997959078578],[-0.3716758025061747,-0.6493435625124113,1.885425263596726,0.47336926677134544,-1.1658862786567163],[0.41437083870620806,-0.9191705871212941,0.12967938473051957,-1.3197827143873588,-0.653183437311361],[0.007038433550623481,0.32757324722258363,-0.9380375417450026,0.17947040699251204,0.32270349709099677],[-0.013503360770332762,0.05292153166718239,-0.4180206950841192,0.3883307136752496,0.20812247881891355],[0.030897369025903374,-0.7572483118866895,-0.3503659743666857,-0.7726216107166792,0.529501560251944],[0.6770021564977008,0.25592021500465784,-0.26085990297514644,-0.10682743816423673,-0.13803777331674488],[0.375695100154273,-0.2203226396496935,-0.028414870409728864,-0.0729154570353438,0.19614394141820063],[0.5651104658659256,-0.30780119704624437,-2.0823774314796418E-4,-1.044383802799623,0.5533717998246461],[0.5956493873852413,0.12783493057262776,-1.0895697563502411,-0.08443605881968766,-0.49015975793311484]],[[0.022640467528200647,0.3869216207583299,-0.9218094756771558,-0.28699050221209865,0.4351634522208493,-0.3614959248125027,0.09148623687078404,-0.15056253412532167,-0.18401634163124067,-0.24714269607940695],[-0.04825795784879999,-0.4980614666850821,0.41419196857961127,-0.33067843833630517,0.18157998901073746,-0.3922597206581296,-0.2756598348924538,-0.4063900397428496,-0.7418101452765056,-0.15191347042530162],[0.6156692169441943,0.021891456875667986,-0.5325671311198938,0.29868231296957837,0.4176615385875709,0.45640986729020633,0.6091068252910498,-0.7785677089301379,-0.8350218734857229,-0.2722717003527995],[-0.44523895634633437,0.014750476480840647,0.21586309288815683,0.33465582143786377,-1.1064581072498703,-0.725743710592516,0.7155945025099419,0.9782694102451549,0.06921816381873411,0.1599263676998851],[0.6735482125201744,-0.15292097146026495,-0.5356633669776611,1.4113252012285187,-0.15110596076879623,-0.36779239807039454,-0.8463022335901714,0.4832896861696122,0.35926897438865646,0.006950237995173331],[-0.4222233619596127,0.3469372117688432,0.05143272942377905,0.5329728661206241,-0.41414556298452265,0.20068459786117546,-1.518154090977902,-0.506502946027737,1.5398767040923622,1.2602826266685045],[0.7158860634401069,-0.015054248807925275,-0.01592556094334399,-0.3706007787355916,-0.06336618395251858,-0.043240691750752555,0.6026202691102672,-0.8581000163167963,-0.8621861745873445,-0.17538488972602811],[0.10199722094968552,-0.25779216684596684,0.06317930205380465,-0.4941434792173809,-0.42022101699602543,0.09423936812796882,0.7693154386002992,0.3850845663932897,-0.7445491587257628,-0.4524161980809768],[-0.010474916527306918,-0.6657620541963671,0.16944640239510556,-0.03191818270701553,-0.1434865800300918,-0.014741267808982321,-0.16078353675111157,0.07933297069519123,-0.21344896373121688,0.715557443540771],[1.0500640699115376,-0.981976618435588,-0.718365980142725,0.05156810860809927,0.6831281488917047,-1.0174010978952166,-0.8630285628248189,0.8607235776668504,-0.7485229649067415,0.160498875709553],[0.5558270246255042,-0.4213857239370992,0.2962997118914591,-0.9729521252355045,-0.2618249518582719,0.14365545284126724,0.14910327596467549,0.3357931354827946,0.3313099080162492,-0.05357834521707945],[0.07975482122347055,0.49428311477311837,0.6111109215666762,-0.29193081672050003,-0.44731261816266643,-0.37469492737929816,0.138955295463643,0.20639704013112406,0.002648122132229794,0.5971581651532956],[0.058185542224987376,0.4874347858821251,1.3519935846598563,0.3243217498823176,0.7111467738517395,-0.21120218198172716,-0.4997246110629996,-0.4349201523444134,-0.22573157849583259,0.0626623139774234],[0.3998892293757129,0.9406247712715532,0.36272302168148796,0.28690814275020715,0.36399048174880944,-0.6712635919405275,-0.5181933370385192,-0.07665469275420184,-0.611218764056741,0.45013534990827],[1.5594069593117712,0.6587073016642793,0.08653434438386443,0.6059098444600254,-0.43074979010666203,-2.0446360557829335,0.5092740918309857,-1.1741227952499869,0.39509361261380177,-1.6250392266161646]]]}